0.571546454518401,0.29440701548034,0.167672722486022,0.140614520128996,0.554632172096516,-0.297283708695175,0.118338189427753,-0.543499207811563,0.384966660839206,-0.556982994660713,-0.154163406187952,-0.709595595936613,-10.5910954770706,-24.4814625252675,-3.69336324939406,-12.6364474913684,3.89320981295259,7.03001123085447,-0.169290294628333,-0.235834109194698,0.351057839105186,0.212890342735764,0.498330221261664,-0.197992391395192,0.294749082751182,-0.559750162711618,0.318467235624867,-0.784076769285635,0.123663322578016,-0.749661189467689,0.382886455403293,1.12172587745261,-0.974901955328626,1.04940716505729,-0.0765344261957327,1.34609836911678,-0.0497638650759147,-0.413698039272144,0.696917958306317,0.0311793681295907,0.524493034511732,-0.327661247828093,0.0834698495010654,-0.255336994657081,0.0972331095082967,-0.54640190342153,0.775930851684812,-0.595576954222115,-0.221990586249348,-0.333274410612994,-0.11602841414875,-0.526686625925582,0.0601348764761888,0.286173121018948,0.484365122244167,1.69448710107386,-1.39257228555392,1.43083088813421,-0.771453660167057,0.671115670191521,-1.16551820411352,0.699699132532384,-3.76079376334976,0.908726318994453,0.603261807954983,0.950132157245388,0.392831576567907,0.973670084745191,-0.303629830474071,0.400999835888012,3.46679141688196,
