0.678775124139561,0.385291444283819,1.32079551690834,0.585253747309921,-1.30496168029332,0.406543472898088,0.38178900729117,0.479790757681056,0.459136314854776,-0.481456539186155,0.0518302934970199,-0.147771027827477,0.395992814490471,-0.0945409639376257,-0.293794248680019,0.0801616766412455,-0.154002785550132,-0.0532290716295619,-0.0292128565957117,0.0318976408681405,0.243518743552397,0.201472405413712,0.217233580876468,-0.270282443011272,0.0541216405643736,-0.0992042755269122,-0.0476347338468435,0.144626235329774,0.00764352634807642,-0.00889208769151888,0.327471700212825,0.0890624099478023,0.213645295502665,0.286966875460811,0.488560486204529,-0.21391925596411,-0.486378634359351,-0.79881764726064,-0.546703491271942,-1.5861935210976,0.803562615255139,1.24656659026093,0.309470083641085,0.0665904230288061,-0.0822407783328126,0.0960324029037469,0.440485691713116,0.203895321965093,-0.0410754672036645,-2.82798800407197,-0.605602445232141,-0.98262931623452,-0.216342728015893,1.04658585180729,0.289757893144564,-0.399754463632936,0.510348008990317,-0.526946617004857,0.134481824191431,-0.208413484919459,-0.311107733004879,-0.0109260968794427,0.174272415485388,0.0734513317319768,0.538008898479593,0.198429250445,-0.938506306548932,-0.0446642309259726,-0.931358748440414,0.549023978251887,1.36037449523665,
