-0.190736883496491,0.449296137065957,-0.185409479784719,0.024341627520871,0.332878784211604,-0.275910190352688,-0.772849167569477,0.131201708896381,-0.181002598266934,0.0125945742167169,-0.902604906204167,-0.160936603554132,-0.273581569663277,-2.45024622004771,-1.78983615685096,-0.825071342215561,0.515242365143001,0.586780504111261,0.499099146251726,-0.150709301056796,0.328378973166615,0.0738614517670386,0.443718051996425,0.362352813144346,0.242941714428366,0.618965502639112,0.491346636766738,0.242557272335985,-0.403780169661343,-0.172792587829003,-0.468985147384768,0.425132031699662,0.201162172195972,0.195121134925919,0.106791199174168,-0.484259283774499,0.115530851137962,-0.0733997469133768,-0.166404416115965,-0.527032217564858,-0.129744102417743,-0.0301848793769089,0.00760719651855516,0.220865973077979,0.12077193172124,-0.0677693102946939,0.605965539487971,-0.600887595065296,-0.232955743979781,-0.168083300258923,-0.324762975205092,0.196776419708512,-0.251323860418454,-0.336287369140338,0.373563338464297,-0.151372597188781,0.488726525984711,0.256687343427329,-0.414456454960046,0.0501875668732982,0.274169990127465,0.795886679061663,-0.851457298856699,0.896104168315653,-0.666238936847135,-0.995298523845637,0.0128786847288401,1.36144311969459,0.582136918919425,0.0773946977765198,0.223420369208081,
