-0.445512990374893,-1.42134091708107,-4.83929400588644,-3.31382583229171,1.01561979443938,3.77235789345782,-0.30620537174355,0.768135380215049,-0.254737550842848,-0.196821041382014,-1.0450062716204,0.0748933544175483,0.00332853522475825,0.315079986714225,-0.248552071141962,-0.153100436184471,-0.231800083220049,-0.108568964362375,0.291906607541075,-0.816248206984625,0.167176034753544,0.498020840932986,0.906933969858082,0.255687523212694,0.0396505668891113,-0.897650365992372,-2.13562565268719,-1.88732371174574,-0.0808799276546262,1.09185544420363,0.302938947089629,0.569023899742211,0.0223166036834491,1.01943931079582,-0.107077597166839,-0.498616191843618,0.105492237591682,0.277369772831543,0.423859615466895,0.850291079460425,0.220596047506888,-0.35634236659741,-0.493423162410603,0.182098673593504,0.134542736601516,0.0282982418675719,0.12049367892386,0.13186459298155,-0.0445282793040689,-0.289242974731108,0.26194171083578,0.451555063685332,-0.242782393231286,-0.436286928359365,-0.318076424172949,-0.507614508666481,-1.14373172047732,-0.362607801914164,0.139678104902427,0.00481154285437782,-2.02117165081816,0.747324186156129,0.427049026009021,0.979675230842996,-1.7135087170187,-1.16248054843235,-0.323574606397347,0.21793390729997,-0.479672825626266,-0.24823842146638,1.70963369550415,
